digraph Tree {
node [shape=box, style="filled, rounded", color="black", fontname=helvetica] ;
edge [fontname=helvetica] ;
0 [label="X[18] <= 1.5\nentropy = 1.527\nsamples = 3787\nvalue = [1073, 938, 1776]", fillcolor="#deccf8"] ;
1 [label="X[18] <= 0.5\nentropy = 1.565\nsamples = 2456\nvalue = [1004, 776, 676]", fillcolor="#fbeee4"] ;
0 -> 1 [labeldistance=2.5, labelangle=45, headlabel="True"] ;
2 [label="X[12] <= 2.875\nentropy = 1.172\nsamples = 861\nvalue = [594, 183, 84]", fillcolor="#efb387"] ;
1 -> 2 ;
3 [label="X[2] <= 7.5\nentropy = 0.834\nsamples = 459\nvalue = [378, 54, 27]", fillcolor="#ea9a61"] ;
2 -> 3 ;
4 [label="X[15] <= 2.075\nentropy = 0.709\nsamples = 382\nvalue = [329, 35, 18]", fillcolor="#e99457"] ;
3 -> 4 ;
5 [label="entropy = 0.554\nsamples = 265\nvalue = [239, 17, 9]", fillcolor="#e88e4e"] ;
4 -> 5 ;
6 [label="entropy = 0.991\nsamples = 117\nvalue = [90, 18, 9]", fillcolor="#eca36f"] ;
4 -> 6 ;
7 [label="X[20] <= 2012.5\nentropy = 1.275\nsamples = 77\nvalue = [49, 19, 9]", fillcolor="#f2be99"] ;
3 -> 7 ;
8 [label="entropy = 1.115\nsamples = 67\nvalue = [48, 13, 6]", fillcolor="#eead7f"] ;
7 -> 8 ;
9 [label="entropy = 1.295\nsamples = 10\nvalue = [1, 6, 3]", fillcolor="#aaf4c9"] ;
7 -> 9 ;
10 [label="X[2] <= 2.5\nentropy = 1.407\nsamples = 402\nvalue = [216, 129, 57]", fillcolor="#f7d7c0"] ;
2 -> 10 ;
11 [label="X[2] <= 1.5\nentropy = 0.676\nsamples = 49\nvalue = [42, 6, 1]", fillcolor="#e99659"] ;
10 -> 11 ;
12 [label="entropy = 0.0\nsamples = 18\nvalue = [18, 0, 0]", fillcolor="#e58139"] ;
11 -> 12 ;
13 [label="entropy = 0.904\nsamples = 31\nvalue = [24, 6, 1]", fillcolor="#eca470"] ;
11 -> 13 ;
14 [label="X[3] <= 4.5\nentropy = 1.454\nsamples = 353\nvalue = [174, 123, 56]", fillcolor="#f9e3d3"] ;
10 -> 14 ;
15 [label="entropy = 1.527\nsamples = 172\nvalue = [59, 76, 37]", fillcolor="#e1fbec"] ;
14 -> 15 ;
16 [label="entropy = 1.262\nsamples = 181\nvalue = [115, 47, 19]", fillcolor="#f2bf9b"] ;
14 -> 16 ;
17 [label="X[13] <= 1.86\nentropy = 1.565\nsamples = 1595\nvalue = [410, 593, 592]", fillcolor="#ffffff"] ;
1 -> 17 ;
18 [label="X[3] <= 2.5\nentropy = 1.348\nsamples = 532\nvalue = [65, 159, 308]", fillcolor="#cdb0f5"] ;
17 -> 18 ;
19 [label="X[13] <= 1.195\nentropy = 1.066\nsamples = 176\nvalue = [6, 51, 119]", fillcolor="#ba93f1"] ;
18 -> 19 ;
20 [label="entropy = 0.297\nsamples = 19\nvalue = [1, 0, 18]", fillcolor="#8844e6"] ;
19 -> 20 ;
21 [label="entropy = 1.095\nsamples = 157\nvalue = [5, 51, 101]", fillcolor="#c4a2f3"] ;
19 -> 21 ;
22 [label="X[11] <= 3.725\nentropy = 1.437\nsamples = 356\nvalue = [59, 108, 189]", fillcolor="#d6bef7"] ;
18 -> 22 ;
23 [label="entropy = 1.424\nsamples = 117\nvalue = [15, 50, 52]", fillcolor="#fbf9fe"] ;
22 -> 23 ;
24 [label="entropy = 1.405\nsamples = 239\nvalue = [44, 58, 137]", fillcolor="#c8a9f4"] ;
22 -> 24 ;
25 [label="X[3] <= 3.5\nentropy = 1.563\nsamples = 1063\nvalue = [345, 434, 284]", fillcolor="#e6fcef"] ;
17 -> 25 ;
26 [label="X[12] <= 1.93\nentropy = 1.441\nsamples = 345\nvalue = [53, 175, 117]", fillcolor="#cdf8df"] ;
25 -> 26 ;
27 [label="entropy = 1.491\nsamples = 50\nvalue = [18, 23, 9]", fillcolor="#e0fbeb"] ;
26 -> 27 ;
28 [label="entropy = 1.389\nsamples = 295\nvalue = [35, 152, 108]", fillcolor="#d0f9e1"] ;
26 -> 28 ;
29 [label="X[12] <= 1.685\nentropy = 1.548\nsamples = 718\nvalue = [292, 259, 167]", fillcolor="#fdf6f1"] ;
25 -> 29 ;
30 [label="entropy = 1.26\nsamples = 130\nvalue = [84, 31, 15]", fillcolor="#f1bc95"] ;
29 -> 30 ;
31 [label="entropy = 1.565\nsamples = 588\nvalue = [208, 228, 152]", fillcolor="#f5fef8"] ;
29 -> 31 ;
32 [label="X[15] <= 5.525\nentropy = 0.818\nsamples = 1331\nvalue = [69, 162, 1100]", fillcolor="#9a60ea"] ;
0 -> 32 [labeldistance=2.5, labelangle=-45, headlabel="False"] ;
33 [label="X[3] <= 3.5\nentropy = 1.0\nsamples = 864\nvalue = [68, 134, 662]", fillcolor="#a470ec"] ;
32 -> 33 ;
34 [label="X[2] <= 6.5\nentropy = 0.605\nsamples = 302\nvalue = [6, 30, 266]", fillcolor="#9253e8"] ;
33 -> 34 ;
35 [label="X[19] <= 31.5\nentropy = 0.726\nsamples = 187\nvalue = [4, 26, 157]", fillcolor="#985eea"] ;
34 -> 35 ;
36 [label="entropy = 0.454\nsamples = 21\nvalue = [2, 0, 19]", fillcolor="#8e4ee8"] ;
35 -> 36 ;
37 [label="entropy = 0.717\nsamples = 166\nvalue = [2, 26, 138]", fillcolor="#9a61ea"] ;
35 -> 37 ;
38 [label="X[20] <= 2011.5\nentropy = 0.343\nsamples = 115\nvalue = [2, 4, 109]", fillcolor="#8844e6"] ;
34 -> 38 ;
39 [label="entropy = 0.582\nsamples = 57\nvalue = [2, 4, 51]", fillcolor="#8f4fe8"] ;
38 -> 39 ;
40 [label="entropy = 0.0\nsamples = 58\nvalue = [0, 0, 58]", fillcolor="#8139e5"] ;
38 -> 40 ;
41 [label="X[15] <= 2.825\nentropy = 1.157\nsamples = 562\nvalue = [62, 104, 396]", fillcolor="#af81ee"] ;
33 -> 41 ;
42 [label="X[2] <= 4.5\nentropy = 1.413\nsamples = 209\nvalue = [40, 50, 119]", fillcolor="#c8a9f4"] ;
41 -> 42 ;
43 [label="entropy = 1.571\nsamples = 83\nvalue = [24, 26, 33]", fillcolor="#f0e7fc"] ;
42 -> 43 ;
44 [label="entropy = 1.21\nsamples = 126\nvalue = [16, 24, 86]", fillcolor="#b287ef"] ;
42 -> 44 ;
45 [label="X[2] <= 5.5\nentropy = 0.938\nsamples = 353\nvalue = [22, 54, 277]", fillcolor="#a16bec"] ;
41 -> 45 ;
46 [label="entropy = 1.175\nsamples = 126\nvalue = [15, 23, 88]", fillcolor="#af82ef"] ;
45 -> 46 ;
47 [label="entropy = 0.767\nsamples = 227\nvalue = [7, 31, 189]", fillcolor="#995fea"] ;
45 -> 47 ;
48 [label="X[2] <= 8.5\nentropy = 0.349\nsamples = 467\nvalue = [1, 28, 438]", fillcolor="#8946e7"] ;
32 -> 48 ;
49 [label="X[17] <= 37.5\nentropy = 0.498\nsamples = 237\nvalue = [1, 23, 213]", fillcolor="#8f4fe8"] ;
48 -> 49 ;
50 [label="X[17] <= 26.5\nentropy = 0.425\nsamples = 231\nvalue = [0, 20, 211]", fillcolor="#8d4ce7"] ;
49 -> 50 ;
51 [label="entropy = 0.288\nsamples = 139\nvalue = [0, 7, 132]", fillcolor="#8844e6"] ;
50 -> 51 ;
52 [label="entropy = 0.588\nsamples = 92\nvalue = [0, 13, 79]", fillcolor="#965ae9"] ;
50 -> 52 ;
53 [label="entropy = 1.459\nsamples = 6\nvalue = [1, 3, 2]", fillcolor="#cef8e0"] ;
49 -> 53 ;
54 [label="X[17] <= 23.5\nentropy = 0.151\nsamples = 230\nvalue = [0, 5, 225]", fillcolor="#843de6"] ;
48 -> 54 ;
55 [label="entropy = 0.0\nsamples = 111\nvalue = [0, 0, 111]", fillcolor="#8139e5"] ;
54 -> 55 ;
56 [label="X[15] <= 11.25\nentropy = 0.251\nsamples = 119\nvalue = [0, 5, 114]", fillcolor="#8742e6"] ;
54 -> 56 ;
57 [label="entropy = 0.357\nsamples = 74\nvalue = [0, 5, 69]", fillcolor="#8a47e7"] ;
56 -> 57 ;
58 [label="entropy = 0.0\nsamples = 45\nvalue = [0, 0, 45]", fillcolor="#8139e5"] ;
56 -> 58 ;
}